{
  "layers": [
    {
      "type": "dense",
      "num_inputs": 4,
      "num_outputs": 32,
      "weights": [
        [
          0.026093019172549248,
          -0.4687041938304901,
          -0.15987509489059448,
          0.43144214153289795
        ],
        [
          0.4901222586631775,
          -0.4630069434642792,
          -0.2423596829175949,
          0.43240994215011597
        ],
        [
          0.3773552179336548,
          0.036444127559661865,
          -0.42181292176246643,
          -0.42298635840415955
        ],
        [
          0.057692449539899826,
          -0.03045983985066414,
          -0.148188054561615,
          0.08260543644428253
        ],
        [
          -0.20646193623542786,
          -0.24471214413642883,
          -0.40439143776893616,
          -0.3139607608318329
        ],
        [
          0.39371389150619507,
          0.14596858620643616,
          0.48009011149406433,
          0.21225331723690033
        ],
        [
          -0.11347238719463348,
          -0.22840610146522522,
          -0.4814501106739044,
          -0.178294375538826
        ],
        [
          -0.35661041736602783,
          0.2975834310054779,
          0.0856221467256546,
          -0.157014399766922
        ],
        [
          -0.3929731845855713,
          -0.2199714034795761,
          0.20113679766654968,
          0.25531432032585144
        ],
        [
          0.3554517924785614,
          0.48622724413871765,
          0.4106849730014801,
          0.13466712832450867
        ],
        [
          -0.4387904107570648,
          -0.17306777834892273,
          -0.18058504164218903,
          -0.378887414932251
        ],
        [
          0.2619376480579376,
          -0.1449829488992691,
          -0.21332159638404846,
          0.34291595220565796
        ],
        [
          -0.2243337631225586,
          -0.23581600189208984,
          0.3652121424674988,
          -0.4255848526954651
        ],
        [
          -0.03050440549850464,
          0.05105156823992729,
          0.4259971082210541,
          0.4068736135959625
        ],
        [
          -0.2547266185283661,
          0.19745752215385437,
          0.0994400680065155,
          -0.3173827528953552
        ],
        [
          0.06638340651988983,
          -0.37104135751724243,
          0.49705109000205994,
          -0.3708074390888214
        ],
        [
          0.4437651038169861,
          -0.49066826701164246,
          0.11914203315973282,
          -0.4031134247779846
        ],
        [
          0.4438554048538208,
          -0.22318443655967712,
          0.4020230174064636,
          0.12140868604183197
        ],
        [
          -0.47234341502189636,
          -0.3388398587703705,
          -0.45183825492858887,
          -0.1711684912443161
        ],
        [
          0.45821425318717957,
          0.24023298919200897,
          0.3274279832839966,
          -0.11693574488162994
        ],
        [
          0.15752245485782623,
          -0.11474373936653137,
          0.39932864904403687,
          -0.3292887210845947
        ],
        [
          -0.4405900537967682,
          0.4085609018802643,
          0.41141951084136963,
          0.41670915484428406
        ],
        [
          0.345620721578598,
          0.08965958654880524,
          0.26787257194519043,
          0.1322014331817627
        ],
        [
          0.013428643345832825,
          0.2147333323955536,
          -0.29490265250205994,
          -0.4655185043811798
        ],
        [
          0.127310648560524,
          -0.4221650958061218,
          0.4803175926208496,
          0.42528000473976135
        ],
        [
          -0.006317834369838238,
          -0.19580504298210144,
          0.3621182143688202,
          -0.4876836836338043
        ],
        [
          0.09271376579999924,
          0.3961104452610016,
          -0.15161170065402985,
          -0.2424878180027008
        ],
        [
          0.2907087504863739,
          -0.049385420978069305,
          -0.42216581106185913,
          -0.02974206954240799
        ],
        [
          0.45838287472724915,
          -0.12432102113962173,
          -0.23942454159259796,
          0.4685142934322357
        ],
        [
          0.16539885103702545,
          0.09210902452468872,
          -0.0018101725727319717,
          -0.3129526972770691
        ],
        [
          -0.09736232459545135,
          -0.4582398533821106,
          0.08187392354011536,
          -0.40178537368774414
        ],
        [
          0.3828316926956177,
          0.47363337874412537,
          0.3222808241844177,
          -0.34391161799430847
        ]
      ],
      "bias": [
        -0.0009847850305959582,
        0.004579813685268164,
        -0.01395443081855774,
        -0.00345062417909503,
        0.0018960058223456144,
        0.023324936628341675,
        -0.003410446923226118,
        0.002404940314590931,
        -0.00469842879101634,
        0.02983427606523037,
        0.006297898944467306,
        -0.006644262466579676,
        0.0006933954427950084,
        0.019323665648698807,
        0.0008230131934396923,
        -0.0003494559496175498,
        -0.004912530537694693,
        -0.027393363416194916,
        -0.008920548483729362,
        0.026788823306560516,
        0.012688455171883106,
        0.026426000520586967,
        -0.01997806690633297,
        -0.0022655599750578403,
        0.01860298402607441,
        -0.008745555765926838,
        -0.011758740060031414,
        0.0005451209144666791,
        0.016094349324703217,
        -0.002447441453114152,
        0.011750122532248497,
        0.006447926163673401
      ],
      "relu": true,
      "sigmoid": false
    },
    {
      "type": "dense",
      "num_inputs": 32,
      "num_outputs": 10,
      "weights": [
        [
          0.18942533433437347,
          0.34160634875297546,
          0.0251711867749691,
          -0.15587884187698364,
          0.16181457042694092,
          0.3756531774997711,
          -0.11635804921388626,
          0.422715961933136,
          -0.24129201471805573,
          0.2819095253944397,
          -0.22485531866550446,
          0.17641431093215942,
          0.059927843511104584,
          0.30979305505752563,
          0.18874026834964752,
          0.44601213932037354,
          -0.3504074811935425,
          -0.16389726102352142,
          -0.08016666769981384,
          0.44119203090667725,
          0.05746515840291977,
          0.23102371394634247,
          -0.4060038924217224,
          0.2389795333147049,
          -0.07332491874694824,
          -0.41757330298423767,
          -0.4572763741016388,
          -0.37225449085235596,
          0.35071009397506714,
          0.1854599565267563,
          -0.2078062891960144,
          0.01766311377286911
        ],
        [
          -0.2789459228515625,
          -0.1259985864162445,
          0.466657429933548,
          -0.1962263435125351,
          -0.3272857367992401,
          -0.2556110620498657,
          0.2680990397930145,
          -0.3326041102409363,
          -0.19139361381530762,
          0.24744589626789093,
          -0.08102427423000336,
          0.4366183578968048,
          0.24178920686244965,
          0.4247134029865265,
          0.33137908577919006,
          -0.20795269310474396,
          -0.37322700023651123,
          -0.2752746045589447,
          -0.031232252717018127,
          -0.4947044551372528,
          0.31996023654937744,
          0.22546713054180145,
          -0.0854620710015297,
          0.41258504986763,
          0.21302400529384613,
          0.21925289928913116,
          -0.4881869852542877,
          -0.4964103698730469,
          -0.01594148389995098,
          -0.3444625735282898,
          -0.18082532286643982,
          -0.14666350185871124
        ],
        [
          -0.11175532639026642,
          -0.05417144298553467,
          0.46800002455711365,
          0.3317902088165283,
          -0.02692296728491783,
          -0.14331193268299103,
          -0.20329321920871735,
          -0.05549531430006027,
          -0.4217645227909088,
          -0.3618212640285492,
          0.27239006757736206,
          0.2803061902523041,
          0.41615378856658936,
          -0.410077303647995,
          0.09427004307508469,
          -0.3324480652809143,
          0.1370040774345398,
          -0.49097636342048645,
          0.28381508588790894,
          -0.4843156337738037,
          0.3129938542842865,
          0.1952228546142578,
          -0.13114522397518158,
          0.15844587981700897,
          0.10732011497020721,
          0.19018356502056122,
          0.41368067264556885,
          0.14138393104076385,
          -0.14819513261318207,
          0.41736823320388794,
          0.20569173991680145,
          -0.30383867025375366
        ],
        [
          0.3271445631980896,
          -0.05524781718850136,
          -0.48239707946777344,
          0.34696078300476074,
          0.4382883906364441,
          0.12116599082946777,
          -0.4052029252052307,
          -0.014626998454332352,
          -0.03992561250925064,
          0.2201511561870575,
          -0.27384838461875916,
          -0.15619072318077087,
          0.4698236286640167,
          -0.3620764911174774,
          0.18108244240283966,
          0.279659628868103,
          -0.06253799051046371,
          -0.40850722789764404,
          -0.08541848510503769,
          -0.0966343805193901,
          0.34198853373527527,
          -0.3280389904975891,
          -0.20831431448459625,
          -0.3511539697647095,
          -0.32570645213127136,
          0.3717493712902069,
          0.015184339135885239,
          -0.18393491208553314,
          -0.23464152216911316,
          -0.3340606391429901,
          -0.13501350581645966,
          -0.03796234726905823
        ],
        [
          -0.18319711089134216,
          0.33678847551345825,
          -0.22758498787879944,
          0.2688562870025635,
          0.4685419201850891,
          0.18704618513584137,
          -0.1576656997203827,
          -0.24555310606956482,
          0.1298339068889618,
          0.2734955847263336,
          -0.25881582498550415,
          0.07870305329561234,
          0.192976713180542,
          0.014488540589809418,
          0.30417901277542114,
          0.2344939112663269,
          -0.12993012368679047,
          -0.22883225977420807,
          0.24539533257484436,
          -0.19516223669052124,
          0.4793635308742523,
          -0.254474937915802,
          0.1600981503725052,
          -0.44643348455429077,
          -0.23827065527439117,
          0.13587437570095062,
          -0.249838724732399,
          -0.35539522767066956,
          -0.23374487459659576,
          -0.4071442186832428,
          -0.27336108684539795,
          0.3972950577735901
        ],
        [
          -0.27595144510269165,
          -0.2616131603717804,
          -0.38374626636505127,
          0.27794480323791504,
          -0.21308277547359467,
          0.486715704202652,
          -0.490225613117218,
          -0.29727619886398315,
          0.05486834794282913,
          0.4948002099990845,
          0.49682334065437317,
          -0.0636422410607338,
          0.2607661485671997,
          0.1700579673051834,
          -0.22206182777881622,
          -0.21929965913295746,
          0.25148805975914,
          -0.03777788579463959,
          0.07115667313337326,
          0.35873734951019287,
          0.20288288593292236,
          0.44041651487350464,
          0.23219412565231323,
          -0.13213486969470978,
          0.17932939529418945,
          -0.05691437050700188,
          -0.31453606486320496,
          0.40000852942466736,
          -0.4649551212787628,
          -0.4777698814868927,
          0.39566490054130554,
          0.002710470464080572
        ],
        [
          0.2009015679359436,
          -0.4924894869327545,
          0.22648727893829346,
          0.023724142462015152,
          -0.26878559589385986,
          -0.19253422319889069,
          0.21878571808338165,
          -0.04567061364650726,
          -0.10750950127840042,
          -0.08583719283342361,
          -0.3564847707748413,
          -0.25683435797691345,
          -0.00950904842466116,
          0.43053001165390015,
          0.14611093699932098,
          -0.18183192610740662,
          0.29815903306007385,
          0.024407468736171722,
          0.273914098739624,
          0.25104400515556335,
          -0.17515136301517487,
          -0.1638617366552353,
          0.030291587114334106,
          0.1058558002114296,
          -0.43736085295677185,
          0.23461849987506866,
          -0.3906504213809967,
          -0.471805214881897,
          -0.22415867447853088,
          0.008140542544424534,
          0.041070155799388885,
          -0.3430802822113037
        ],
        [
          0.23415854573249817,
          0.060698002576828,
          -0.44803255796432495,
          0.3994190990924835,
          0.32176434993743896,
          0.4949111342430115,
          0.24501188099384308,
          0.0323161818087101,
          -0.2738201916217804,
          -0.41436487436294556,
          0.26734495162963867,
          -0.15849632024765015,
          -0.37993359565734863,
          0.3645280599594116,
          0.14121802151203156,
          -0.40069177746772766,
          -0.03761378303170204,
          0.026702597737312317,
          -0.08089713752269745,
          -0.28682583570480347,
          0.35996362566947937,
          -0.32567936182022095,
          -0.45480990409851074,
          0.4412515461444855,
          -0.1633089780807495,
          -0.009135352447628975,
          0.24008667469024658,
          0.28916242718696594,
          0.3306456208229065,
          -0.29018133878707886,
          0.02714516781270504,
          -0.06588303297758102
        ],
        [
          -0.44790053367614746,
          -0.06210775673389435,
          0.4452764391899109,
          -0.41688764095306396,
          0.2958255112171173,
          0.44096121191978455,
          0.32697221636772156,
          -0.010550107806921005,
          0.29039621353149414,
          -0.09970252215862274,
          -0.40053585171699524,
          0.2816796898841858,
          0.36505812406539917,
          -0.4239635169506073,
          -0.3562203347682953,
          0.4927561581134796,
          -0.08672944456338882,
          -0.4021095633506775,
          -0.2899714410305023,
          0.07579381763935089,
          -0.20095983147621155,
          -0.20226559042930603,
          -0.1649639755487442,
          -0.3293854892253876,
          0.2850438356399536,
          -0.17956334352493286,
          0.07250813394784927,
          -0.29712897539138794,
          0.36919936537742615,
          -0.07183355838060379,
          -0.3289026618003845,
          -0.3089999854564667
        ],
        [
          -0.04153583571314812,
          0.31499773263931274,
          -0.3027685880661011,
          -0.33211490511894226,
          0.023375749588012695,
          -0.271070659160614,
          0.2427678406238556,
          -0.084232397377491,
          0.347675621509552,
          0.12939374148845673,
          0.3915981352329254,
          -0.4439270794391632,
          -0.4178370237350464,
          -0.1676071286201477,
          -0.014781411737203598,
          -0.2112957239151001,
          -0.08163036406040192,
          -0.19287975132465363,
          -0.3304656445980072,
          -0.3192127048969269,
          0.2462548166513443,
          0.16472521424293518,
          -0.08737507462501526,
          -0.29017817974090576,
          0.3865983784198761,
          0.18187521398067474,
          0.1001933142542839,
          0.1508680284023285,
          0.5045139193534851,
          0.3606525659561157,
          0.3418135941028595,
          0.4743965268135071
        ]
      ],
      "bias": [
        0.05759840086102486,
        0.010403147898614407,
        -0.007278449833393097,
        0.013105195015668869,
        -0.02212664671242237,
        0.04355281591415405,
        0.00041528826113790274,
        0.0014589616330340505,
        -0.001197531120851636,
        0.035358499735593796
      ],
      "relu": true,
      "sigmoid": false
    },
    {
      "type": "dense",
      "num_inputs": 10,
      "num_outputs": 3,
      "weights": [
        [
          -0.031250521540641785,
          -0.17059284448623657,
          -0.38130509853363037,
          -0.005454807076603174,
          0.23278363049030304,
          -0.45478516817092896,
          -0.16688741743564606,
          0.15842366218566895,
          -0.4063132405281067,
          -0.05677686631679535
        ],
        [
          0.5262640118598938,
          0.4659876525402069,
          0.18164095282554626,
          0.48923876881599426,
          0.14554984867572784,
          0.31419000029563904,
          -0.41595739126205444,
          -0.06633032858371735,
          -0.35192129015922546,
          0.02040315419435501
        ],
        [
          -0.2930743992328644,
          -0.2884080111980438,
          0.20958364009857178,
          0.10823884606361389,
          0.40602919459342957,
          0.21011443436145782,
          -0.3214482367038727,
          0.027901817113161087,
          -0.17622387409210205,
          -0.5104537010192871
        ]
      ],
      "bias": [
        -0.039871856570243835,
        0.11709346622228622,
        -0.07722505182027817
      ],
      "relu": false,
      "sigmoid": false
    },
    {
      "type": "softmax",
      "num_inputs": 3,
      "num_outputs": 3
    }
  ],
  "delta": 0.0001,
  "max_batch_size": 100,
  "max_streams": 10,
  "epochs": 10
}